{
  "sizes": [
    11,
    10,
    20,
    4
  ],
  "layers": [
    {
      "tag": {},
      "parentTag": {},
      "height": {},
      "width": {},
      "area": {},
      "pageAreaRatio": {},
      "numOfChildren": {},
      "wordCount": {},
      "capitalWordsCount": {},
      "capitalToWordRatio": {},
      "visible": {}
    },
    {
      "0": {
        "bias": -4.300121784210205,
        "weights": {
          "tag": 60.02083969116211,
          "parentTag": 24.943944931030273,
          "height": 0.29183852672576904,
          "width": -0.8756451606750488,
          "area": 0.30142471194267273,
          "pageAreaRatio": 2.7455074787139893,
          "numOfChildren": 42.55887222290039,
          "wordCount": -3.522566795349121,
          "capitalWordsCount": -3.128185510635376,
          "capitalToWordRatio": -46.10028076171875,
          "visible": -3.679426908493042
        }
      },
      "1": {
        "bias": -27.296876907348633,
        "weights": {
          "tag": -64.5847396850586,
          "parentTag": -2.8575823307037354,
          "height": -3.656538963317871,
          "width": -0.5621501803398132,
          "area": -0.6219971179962158,
          "pageAreaRatio": -1.9892606735229492,
          "numOfChildren": 2.0112926959991455,
          "wordCount": -1.038094162940979,
          "capitalWordsCount": -6.236482620239258,
          "capitalToWordRatio": 27.54827117919922,
          "visible": 10.15646743774414
        }
      },
      "2": {
        "bias": -7.8260626792907715,
        "weights": {
          "tag": -5.876995086669922,
          "parentTag": 62.44005584716797,
          "height": 1.7121410369873047,
          "width": 0.15584753453731537,
          "area": 0.35056954622268677,
          "pageAreaRatio": 0.1727735549211502,
          "numOfChildren": -9.849801063537598,
          "wordCount": 0.3634881377220154,
          "capitalWordsCount": 0.08166859298944473,
          "capitalToWordRatio": -6.569864273071289,
          "visible": 2.263857841491699
        }
      },
      "3": {
        "bias": 5.108546257019043,
        "weights": {
          "tag": 24.164783477783203,
          "parentTag": -40.72761917114258,
          "height": -1.5388115644454956,
          "width": -0.2556861639022827,
          "area": -0.40386226773262024,
          "pageAreaRatio": 0.5181072950363159,
          "numOfChildren": 17.544841766357422,
          "wordCount": -0.22887371480464935,
          "capitalWordsCount": -0.7761351466178894,
          "capitalToWordRatio": 4.132377624511719,
          "visible": 2.669423818588257
        }
      },
      "4": {
        "bias": -3.273022413253784,
        "weights": {
          "tag": 11.761120796203613,
          "parentTag": -23.699647903442383,
          "height": -0.6443383097648621,
          "width": -0.18607991933822632,
          "area": -0.18036597967147827,
          "pageAreaRatio": -0.2570389211177826,
          "numOfChildren": 4.469225883483887,
          "wordCount": -0.6292363405227661,
          "capitalWordsCount": -2.610002279281616,
          "capitalToWordRatio": 43.50054931640625,
          "visible": -16.609046936035156
        }
      },
      "5": {
        "bias": -18.27150535583496,
        "weights": {
          "tag": 70.12610626220703,
          "parentTag": 43.68598175048828,
          "height": -1.5009492635726929,
          "width": -0.677887499332428,
          "area": -0.2271958589553833,
          "pageAreaRatio": 0.4022793173789978,
          "numOfChildren": -10.6500825881958,
          "wordCount": 1.1799578666687012,
          "capitalWordsCount": 6.5378875732421875,
          "capitalToWordRatio": 11.847396850585938,
          "visible": -3.5795023441314697
        }
      },
      "6": {
        "bias": 14.721609115600586,
        "weights": {
          "tag": -55.68060302734375,
          "parentTag": 16.335403442382812,
          "height": -10.70904541015625,
          "width": 0.002256045350804925,
          "area": -2.28285813331604,
          "pageAreaRatio": -8.959853172302246,
          "numOfChildren": -0.18298538029193878,
          "wordCount": -4.954451560974121,
          "capitalWordsCount": -7.203082084655762,
          "capitalToWordRatio": -38.94414138793945,
          "visible": -4.003086566925049
        }
      },
      "7": {
        "bias": 13.92038631439209,
        "weights": {
          "tag": -66.82272338867188,
          "parentTag": -34.934722900390625,
          "height": 4.890432834625244,
          "width": -2.3500378131866455,
          "area": 2.182237148284912,
          "pageAreaRatio": 8.993084907531738,
          "numOfChildren": 122.12128448486328,
          "wordCount": 6.412165641784668,
          "capitalWordsCount": 11.690069198608398,
          "capitalToWordRatio": 0.24873849749565125,
          "visible": -11.696842193603516
        }
      },
      "8": {
        "bias": -11.550765991210938,
        "weights": {
          "tag": -30.12851333618164,
          "parentTag": 41.442726135253906,
          "height": 4.8432087898254395,
          "width": -0.03329526633024216,
          "area": 1.1131460666656494,
          "pageAreaRatio": 2.915018320083618,
          "numOfChildren": 20.35936164855957,
          "wordCount": 1.3527730703353882,
          "capitalWordsCount": 7.262941360473633,
          "capitalToWordRatio": 40.899444580078125,
          "visible": -11.431215286254883
        }
      },
      "9": {
        "bias": -5.589510440826416,
        "weights": {
          "tag": 62.87276077270508,
          "parentTag": -36.46356201171875,
          "height": 37.89293670654297,
          "width": -0.032590776681900024,
          "area": 7.128474235534668,
          "pageAreaRatio": 14.259468078613281,
          "numOfChildren": 39.22353744506836,
          "wordCount": 8.2322359085083,
          "capitalWordsCount": 14.859906196594238,
          "capitalToWordRatio": -11.277320861816406,
          "visible": -2.213351249694824
        }
      }
    },
    {
      "0": {
        "bias": 12.495931625366211,
        "weights": {
          "0": -12.659709930419922,
          "1": 3.179771900177002,
          "2": 18.835718154907227,
          "3": 7.906622886657715,
          "4": 6.934243679046631,
          "5": -17.47051239013672,
          "6": 25.378135681152344,
          "7": 10.57160472869873,
          "8": 8.252373695373535,
          "9": -8.52647876739502
        }
      },
      "1": {
        "bias": -2.0228471755981445,
        "weights": {
          "0": 11.619305610656738,
          "1": 1.0458682775497437,
          "2": 14.780844688415527,
          "3": -6.318454265594482,
          "4": 7.776371479034424,
          "5": 9.597432136535645,
          "6": -20.999738693237305,
          "7": 21.051902770996094,
          "8": -13.912683486938477,
          "9": 20.631397247314453
        }
      },
      "2": {
        "bias": -8.8157377243042,
        "weights": {
          "0": -12.308869361877441,
          "1": -8.316648483276367,
          "2": -14.088212013244629,
          "3": -4.069205284118652,
          "4": 10.603463172912598,
          "5": 22.20734405517578,
          "6": -7.065222263336182,
          "7": -18.886693954467773,
          "8": -7.837828159332275,
          "9": -0.6030730605125427
        }
      },
      "3": {
        "bias": 0.053902432322502136,
        "weights": {
          "0": -5.582503795623779,
          "1": -5.09941291809082,
          "2": 5.255437850952148,
          "3": 1.5956358909606934,
          "4": -14.246953010559082,
          "5": 0.9088593125343323,
          "6": -4.543537139892578,
          "7": -32.6931037902832,
          "8": -16.93539810180664,
          "9": 18.923934936523438
        }
      },
      "4": {
        "bias": -3.239246368408203,
        "weights": {
          "0": -16.790159225463867,
          "1": 5.340936183929443,
          "2": -8.774378776550293,
          "3": 20.074459075927734,
          "4": 1.0265793800354004,
          "5": -17.581729888916016,
          "6": -12.801971435546875,
          "7": 11.898855209350586,
          "8": 16.543689727783203,
          "9": 17.01713752746582
        }
      },
      "5": {
        "bias": 5.868719577789307,
        "weights": {
          "0": -25.555438995361328,
          "1": -3.099025011062622,
          "2": 20.303747177124023,
          "3": -4.338719844818115,
          "4": -13.083796501159668,
          "5": -19.559001922607422,
          "6": 2.9736905097961426,
          "7": 5.56179141998291,
          "8": -13.272582054138184,
          "9": -14.03243637084961
        }
      },
      "6": {
        "bias": -5.418087005615234,
        "weights": {
          "0": -4.3651652336120605,
          "1": -10.445274353027344,
          "2": -0.37223005294799805,
          "3": -10.51912784576416,
          "4": 6.890316486358643,
          "5": 2.6415231227874756,
          "6": -5.852871417999268,
          "7": -18.234285354614258,
          "8": 11.876712799072266,
          "9": 1.915536880493164
        }
      },
      "7": {
        "bias": 2.2073628902435303,
        "weights": {
          "0": 0.6105639338493347,
          "1": -5.184078216552734,
          "2": 6.759598255157471,
          "3": -0.8611866235733032,
          "4": -6.905913829803467,
          "5": 17.199106216430664,
          "6": 2.9397268295288086,
          "7": 13.570598602294922,
          "8": 8.459425926208496,
          "9": 8.885102272033691
        }
      },
      "8": {
        "bias": -11.247088432312012,
        "weights": {
          "0": 1.3288652896881104,
          "1": 16.15877342224121,
          "2": -11.208081245422363,
          "3": -5.133278846740723,
          "4": -6.421231746673584,
          "5": -11.822670936584473,
          "6": -16.664464950561523,
          "7": 23.445899963378906,
          "8": 14.19202995300293,
          "9": -1.3818321228027344
        }
      },
      "9": {
        "bias": 1.2537869215011597,
        "weights": {
          "0": -1.3154138326644897,
          "1": -6.830893039703369,
          "2": 17.99577522277832,
          "3": -24.200267791748047,
          "4": 4.550470352172852,
          "5": 0.43208733201026917,
          "6": -1.2164472341537476,
          "7": -4.086483478546143,
          "8": 0.8386709094047546,
          "9": -8.9451265335083
        }
      },
      "10": {
        "bias": -0.08791343122720718,
        "weights": {
          "0": 1.0874007940292358,
          "1": 0.7905761003494263,
          "2": 8.015536308288574,
          "3": -10.470498085021973,
          "4": -1.676905870437622,
          "5": 4.180239677429199,
          "6": -2.974926710128784,
          "7": -11.089421272277832,
          "8": -13.319046974182129,
          "9": -8.075663566589355
        }
      },
      "11": {
        "bias": 8.11330795288086,
        "weights": {
          "0": -10.773016929626465,
          "1": -24.733642578125,
          "2": 2.4160616397857666,
          "3": -13.429601669311523,
          "4": 17.963560104370117,
          "5": 2.5052380561828613,
          "6": -2.2226555347442627,
          "7": 1.1753263473510742,
          "8": -5.75386905670166,
          "9": 0.03436003252863884
        }
      },
      "12": {
        "bias": -3.577458620071411,
        "weights": {
          "0": 5.491477966308594,
          "1": 1.6397489309310913,
          "2": -1.6466867923736572,
          "3": -17.141223907470703,
          "4": 5.067999839782715,
          "5": 8.935725212097168,
          "6": 0.6277546882629395,
          "7": -8.578292846679688,
          "8": -1.9272913932800293,
          "9": -2.9159915447235107
        }
      },
      "13": {
        "bias": -2.0780446529388428,
        "weights": {
          "0": -2.621785879135132,
          "1": -4.704754829406738,
          "2": 0.785363495349884,
          "3": -3.775872230529785,
          "4": -1.2935553789138794,
          "5": -0.870968759059906,
          "6": -2.762101173400879,
          "7": -6.59124231338501,
          "8": -4.416386127471924,
          "9": -1.1105514764785767
        }
      },
      "14": {
        "bias": -4.495282173156738,
        "weights": {
          "0": -6.121096134185791,
          "1": 23.765796661376953,
          "2": 20.889270782470703,
          "3": -16.86624526977539,
          "4": -6.849026679992676,
          "5": 8.170642852783203,
          "6": -1.6884390115737915,
          "7": 21.304927825927734,
          "8": 5.123521327972412,
          "9": -3.936718702316284
        }
      },
      "15": {
        "bias": 14.585795402526855,
        "weights": {
          "0": -24.454221725463867,
          "1": 4.218930721282959,
          "2": 8.4815092086792,
          "3": 6.142585754394531,
          "4": 3.683708429336548,
          "5": -6.235044002532959,
          "6": -18.662248611450195,
          "7": 0.6183313727378845,
          "8": 4.004454135894775,
          "9": -6.200952053070068
        }
      },
      "16": {
        "bias": -0.470692902803421,
        "weights": {
          "0": -0.22679917514324188,
          "1": -5.054202079772949,
          "2": -2.6307270526885986,
          "3": -1.4720031023025513,
          "4": -4.386816501617432,
          "5": -1.3486745357513428,
          "6": -27.153095245361328,
          "7": 4.645600318908691,
          "8": -13.431939125061035,
          "9": 8.94765853881836
        }
      },
      "17": {
        "bias": -5.724216938018799,
        "weights": {
          "0": -5.068988800048828,
          "1": -3.3037376403808594,
          "2": 6.214890003204346,
          "3": 3.1361615657806396,
          "4": -24.514305114746094,
          "5": -9.522639274597168,
          "6": -0.765865683555603,
          "7": 27.901546478271484,
          "8": 3.1220126152038574,
          "9": 28.503080368041992
        }
      },
      "18": {
        "bias": 7.532748699188232,
        "weights": {
          "0": 15.62596321105957,
          "1": -7.413686752319336,
          "2": -18.456876754760742,
          "3": -13.074838638305664,
          "4": 3.65647292137146,
          "5": 22.034862518310547,
          "6": -26.83942413330078,
          "7": -7.3194355964660645,
          "8": -4.208403587341309,
          "9": 21.428232192993164
        }
      },
      "19": {
        "bias": -12.80700397491455,
        "weights": {
          "0": 5.4221062660217285,
          "1": 16.96552085876465,
          "2": -13.650298118591309,
          "3": -3.205453395843506,
          "4": 12.335817337036133,
          "5": -22.903738021850586,
          "6": 5.663052558898926,
          "7": 23.852611541748047,
          "8": 24.28643798828125,
          "9": -10.00490665435791
        }
      }
    },
    {
      "other": {
        "bias": -13.59696102142334,
        "weights": {
          "0": 10.546266555786133,
          "1": 1.6461507081985474,
          "2": 2.6187732219696045,
          "3": -9.049446105957031,
          "4": -8.17465877532959,
          "5": 2.5009074211120605,
          "6": -10.014481544494629,
          "7": 5.082269668579102,
          "8": -8.5558500289917,
          "9": -12.505642890930176,
          "10": -11.742186546325684,
          "11": 8.411792755126953,
          "12": -15.6071195602417,
          "13": 2.2404372692108154,
          "14": 14.82674789428711,
          "15": -7.312607765197754,
          "16": 6.0551438331604,
          "17": 6.3596649169921875,
          "18": 7.4447808265686035,
          "19": 4.305224895477295
        }
      },
      "title": {
        "bias": -10.093925476074219,
        "weights": {
          "0": 1.2567496299743652,
          "1": -6.418191432952881,
          "2": -12.14370059967041,
          "3": 22.28435707092285,
          "4": 14.471857070922852,
          "5": -11.885619163513184,
          "6": 12.376861572265625,
          "7": -4.864960670471191,
          "8": -11.608383178710938,
          "9": 18.103639602661133,
          "10": 21.387928009033203,
          "11": -1.2447960376739502,
          "12": -2.817145586013794,
          "13": -3.9792609214782715,
          "14": -15.815482139587402,
          "15": 11.076992988586426,
          "16": -8.921381950378418,
          "17": -10.41689395904541,
          "18": -12.461756706237793,
          "19": -13.072322845458984
        }
      },
      "author": {
        "bias": -2.0975570678710938,
        "weights": {
          "0": 0.7055373191833496,
          "1": -0.9810262322425842,
          "2": -5.974883556365967,
          "3": -4.357694625854492,
          "4": -10.436166763305664,
          "5": -9.230734825134277,
          "6": -0.4500814378261566,
          "7": -1.497056245803833,
          "8": 10.076347351074219,
          "9": 7.940296649932861,
          "10": 1.3227593898773193,
          "11": -6.336693286895752,
          "12": 5.437136650085449,
          "13": -0.8333680033683777,
          "14": -12.28432846069336,
          "15": 12.484047889709473,
          "16": -4.779733180999756,
          "17": -5.432161331176758,
          "18": 1.5344898700714111,
          "19": 5.212221145629883
        }
      },
      "date": {
        "bias": 3.8817551136016846,
        "weights": {
          "0": -25.01978302001953,
          "1": -5.3239545822143555,
          "2": -2.9880263805389404,
          "3": -13.761271476745605,
          "4": 9.594151496887207,
          "5": 12.123502731323242,
          "6": -11.434263229370117,
          "7": 6.1669745445251465,
          "8": -2.03741192817688,
          "9": 15.796276092529297,
          "10": -0.7431732416152954,
          "11": -9.317893981933594,
          "12": 15.505119323730469,
          "13": -1.283665657043457,
          "14": -6.965784072875977,
          "15": 6.276341438293457,
          "16": 4.893831729888916,
          "17": -11.00117301940918,
          "18": 8.541971206665039,
          "19": -12.048933982849121
        }
      }
    }
  ],
  "outputLookup": true,
  "inputLookup": true,
  "activation": "sigmoid",
  "trainOpts": {
    "iterations": 20000,
    "errorThresh": 0.005,
    "log": false,
    "logPeriod": 10,
    "learningRate": 0.3,
    "momentum": 0.1,
    "callbackPeriod": 10,
    "beta1": 0.9,
    "beta2": 0.999,
    "epsilon": 1e-8
  }
}